{"graph_0": {"_type": "graph-file", "sha256": "e81089e5747f91f4e317f44b1e1ac5217f800d1cc4518131642c13f62ebec336", "size": 1798, "path": "media/graph/graph_0_summary_e81089e5747f91f4e317.graph.json"}, "gradients/model.fc.6.bias": {"_type": "histogram", "values": [1.0, 0.0, 0.0, 0.0, 0.0, 0.0, 0.0, 0.0, 0.0, 0.0, 0.0, 0.0, 0.0, 0.0, 0.0, 0.0, 0.0, 0.0, 0.0, 0.0, 0.0, 0.0, 0.0, 0.0, 0.0, 0.0, 0.0, 0.0, 0.0, 0.0, 0.0, 0.0, 0.0, 0.0, 0.0, 0.0, 0.0, 0.0, 0.0, 1.0, 0.0, 0.0, 0.0, 0.0, 7.0, 1.0, 0.0, 1.0, 0.0, 2.0, 1.0, 0.0, 1.0, 0.0, 0.0, 0.0, 0.0, 0.0, 0.0, 0.0, 0.0, 0.0, 0.0, 1.0], "bins": [-0.017977938055992126, -0.01757277548313141, -0.01716761477291584, -0.016762452200055122, -0.016357291489839554, -0.015952128916978836, -0.015546967275440693, -0.01514180563390255, -0.014736643061041832, -0.014331481419503689, -0.013926319777965546, -0.013521158136427402, -0.01311599649488926, -0.012710834853351116, -0.012305672280490398, -0.011900510638952255, -0.011495348997414112, -0.011090187355875969, -0.010685025714337826, -0.010279863141477108, -0.009874701499938965, -0.009469539858400822, -0.009064378216862679, -0.008659216575324535, -0.008254054933786392, -0.007848892360925674, -0.007443730719387531, -0.007038569077849388, -0.006633407436311245, -0.0062282453291118145, -0.005823083687573671, -0.005417921580374241, -0.005012759938836098, -0.0046075982972979546, -0.004202436190098524, -0.003797274548560381, -0.003392112674191594, -0.0029869507998228073, -0.002581789158284664, -0.0021766272839158773, -0.0017714654095470905, -0.0013663035351783037, -0.0009611417772248387, -0.0005559799610637128, -0.00015081814490258694, 0.00025434367125853896, 0.0006595054874196649, 0.0010646672453731298, 0.0014698291197419167, 0.0018749909941107035, 0.0022801528684794903, 0.0026853145100176334, 0.0030904763843864202, 0.003495638258755207, 0.0039007999002933502, 0.004305962007492781, 0.004711123649030924, 0.005116285290569067, 0.0055214473977684975, 0.005926609039306641, 0.006331770680844784, 0.006736932788044214, 0.007142094429582357, 0.007547256536781788, 0.007952418178319931]}, "_timestamp": 1721942792.7916632, "gradients/model.fc.6.weight": {"_type": "histogram", "values": [2.0, 1.0, 0.0, 0.0, 1.0, 1.0, 0.0, 0.0, 2.0, 1.0, 3.0, 2.0, 1.0, 3.0, 1.0, 5.0, 1.0, 5.0, 6.0, 6.0, 5.0, 4.0, 9.0, 8.0, 16.0, 18.0, 14.0, 13.0, 17.0, 27.0, 24.0, 33.0, 48.0, 75.0, 71.0, 261.0, 6695.0, 413.0, 149.0, 82.0, 46.0, 36.0, 12.0, 23.0, 11.0, 6.0, 12.0, 2.0, 4.0, 5.0, 3.0, 1.0, 1.0, 0.0, 3.0, 0.0, 1.0, 0.0, 0.0, 1.0, 0.0, 0.0, 1.0, 1.0], "bins": [-0.08262491226196289, -0.08033128082752228, -0.07803764939308167, -0.07574401795864105, -0.07345038652420044, -0.07115675508975983, -0.06886312365531921, -0.0665694922208786, -0.06427586078643799, -0.06198222562670708, -0.059688594192266464, -0.05739496275782585, -0.05510132759809494, -0.05280769616365433, -0.050514064729213715, -0.0482204332947731, -0.04592680186033249, -0.043633170425891876, -0.04133953899145126, -0.03904590755701065, -0.03675227612257004, -0.03445864096283913, -0.032165009528398514, -0.0298713780939579, -0.027577746659517288, -0.025284115225076675, -0.022990483790636063, -0.0206968504935503, -0.018403219059109688, -0.016109587624669075, -0.013815955258905888, -0.0115223228931427, -0.009228691458702087, -0.006935059558600187, -0.004641427658498287, -0.002347795758396387, -5.4163858294487e-05, 0.002239468041807413, 0.004533099941909313, 0.006826731842011213, 0.009120363742113113, 0.011413995176553726, 0.013707627542316914, 0.0160012599080801, 0.018294891342520714, 0.020588522776961327, 0.02288215607404709, 0.0251757875084877, 0.027469418942928314, 0.029763050377368927, 0.03205668181180954, 0.03435031324625015, 0.036643944680690765, 0.03893757984042168, 0.04123121127486229, 0.0435248427093029, 0.045818474143743515, 0.04811210557818413, 0.05040573701262474, 0.05269936844706535, 0.054993003606796265, 0.05728663504123688, 0.05958026647567749, 0.0618738979101181, 0.06416752934455872]}, "gradients/model.fc.3.bias": {"_type": "histogram", "values": [1.0, 0.0, 0.0, 1.0, 0.0, 0.0, 2.0, 1.0, 1.0, 0.0, 1.0, 2.0, 0.0, 2.0, 0.0, 0.0, 3.0, 4.0, 1.0, 2.0, 1.0, 5.0, 10.0, 8.0, 9.0, 11.0, 8.0, 13.0, 17.0, 15.0, 6.0, 17.0, 17.0, 18.0, 28.0, 31.0, 43.0, 153.0, 19.0, 15.0, 3.0, 8.0, 1.0, 2.0, 3.0, 2.0, 4.0, 0.0, 4.0, 0.0, 3.0, 4.0, 2.0, 1.0, 1.0, 1.0, 5.0, 0.0, 0.0, 1.0, 0.0, 0.0, 0.0, 2.0], "bins": [-0.002810760634019971, -0.002736058086156845, -0.0026613553054630756, -0.00258665275759995, -0.002511950209736824, -0.0024372474290430546, -0.0023625448811799288, -0.0022878421004861593, -0.0022131395526230335, -0.0021384370047599077, -0.0020637342240661383, -0.0019890316762030125, -0.0019143290119245648, -0.0018396263476461172, -0.0017649237997829914, -0.0016902211355045438, -0.0016155184712260962, -0.0015408158069476485, -0.001466113142669201, -0.001391410594806075, -0.0013167079305276275, -0.0012420052662491798, -0.001167302718386054, -0.0010926000541076064, -0.0010178973898291588, -0.0009431947255507112, -0.0008684921194799244, -0.0007937895134091377, -0.0007190868491306901, -0.0006443841848522425, -0.0005696815787814558, -0.000494978972710669, -0.00042027607560157776, -0.0003455734404269606, -0.0002708708052523434, -0.00019616817007772624, -0.00012146553490310907, -4.67628997284919e-05, 2.793973544612527e-05, 0.00010264237062074244, 0.0001773450057953596, 0.0002520476409699768, 0.00032675027614459395, 0.0004014529113192111, 0.0004761555464938283, 0.0005508582107722759, 0.0006255608168430626, 0.0007002634229138494, 0.000774966087192297, 0.0008496687514707446, 0.0009243713575415313, 0.000999073963612318, 0.0010737766278907657, 0.0011484792921692133, 0.001223181840032339, 0.0012978845043107867, 0.0013725871685892344, 0.001447289832867682, 0.0015219924971461296, 0.0015966950450092554, 0.001671397709287703, 0.0017461003735661507, 0.0018208029214292765, 0.001895505585707724, 0.0019702082499861717]}, "gradients/model.fc.3.weight": {"_type": "histogram", "values": [1.0, 0.0, 1.0, 1.0, 1.0, 2.0, 2.0, 5.0, 12.0, 4.0, 14.0, 21.0, 29.0, 43.0, 58.0, 55.0, 79.0, 98.0, 150.0, 194.0, 315.0, 475.0, 655.0, 1030.0, 1576.0, 2303.0, 3590.0, 5703.0, 9950.0, 18363.0, 52920.0, 924981.0, 12565.0, 4627.0, 2685.0, 1736.0, 1214.0, 860.0, 598.0, 426.0, 307.0, 254.0, 198.0, 126.0, 95.0, 66.0, 42.0, 38.0, 35.0, 22.0, 6.0, 9.0, 6.0, 5.0, 7.0, 3.0, 6.0, 3.0, 0.0, 2.0, 2.0, 0.0, 0.0, 2.0], "bins": [-0.004723689518868923, -0.004573414567857981, -0.004423139616847038, -0.0042728642001748085, -0.004122589249163866, -0.003972314298152924, -0.003822039347141981, -0.003671764163300395, -0.0035214892122894526, -0.00337121426127851, -0.003220939077436924, -0.0030706641264259815, -0.002920389175415039, -0.002770113991573453, -0.0026198390405625105, -0.0024695638567209244, -0.002319288905709982, -0.0021690139546990395, -0.0020187387708574533, -0.0018684638198465109, -0.0017181887524202466, -0.0015679136849939823, -0.0014176387339830399, -0.0012673636665567756, -0.0011170885991305113, -0.000966813531704247, -0.0008165385224856436, -0.0006662635132670403, -0.000515988445840776, -0.00036571340751834214, -0.0002154383691959083, -6.516333087347448e-05, 8.511124178767204e-05, 0.00023538628011010587, 0.0003856613184325397, 0.0005359363276511431, 0.0006862113950774074, 0.0008364864625036716, 0.000986761413514614, 0.0011370364809408784, 0.0012873115483671427, 0.001437586615793407, 0.0015878616832196712, 0.0017381366342306137, 0.001888411701656878, 0.0020386867690831423, 0.0021889617200940847, 0.002339236903935671, 0.0024895118549466133, 0.0026397868059575558, 0.002790061989799142, 0.0029403369408100843, 0.0030906121246516705, 0.003240887075662613, 0.0033911620266735554, 0.0035414372105151415, 0.003691712161526084, 0.0038419871125370264, 0.0039922622963786125, 0.004142537247389555, 0.0042928121984004974, 0.00444308714941144, 0.00459336256608367, 0.004743637517094612, 0.004893912468105555]}, "gradients/model.fc.0.bias": {"_type": "histogram", "values": [1.0, 0.0, 0.0, 0.0, 0.0, 0.0, 0.0, 0.0, 0.0, 0.0, 0.0, 0.0, 0.0, 0.0, 0.0, 0.0, 0.0, 0.0, 0.0, 2.0, 1.0, 1.0, 0.0, 3.0, 4.0, 4.0, 8.0, 8.0, 12.0, 18.0, 19.0, 31.0, 29.0, 26.0, 33.0, 35.0, 47.0, 43.0, 86.0, 136.0, 166.0, 889.0, 124.0, 80.0, 31.0, 28.0, 30.0, 26.0, 27.0, 24.0, 18.0, 16.0, 7.0, 7.0, 9.0, 6.0, 5.0, 2.0, 1.0, 2.0, 1.0, 1.0, 0.0, 1.0], "bins": [-0.00557611882686615, -0.00544276786968112, -0.005309417378157377, -0.005176066420972347, -0.005042715463787317, -0.004909364972263575, -0.004776014015078545, -0.004642663057893515, -0.004509312566369772, -0.004375961609184742, -0.004242610651999712, -0.004109260160475969, -0.003975909203290939, -0.003842558478936553, -0.0037092077545821667, -0.0035758567973971367, -0.0034425060730427504, -0.003309155348688364, -0.003175804391503334, -0.0030424536671489477, -0.0029091029427945614, -0.0027757519856095314, -0.002642401261255145, -0.0025090505369007587, -0.0023756995797157288, -0.0022423488553613424, -0.002108998131006956, -0.0019756474066525698, -0.0018422964494675398, -0.0017089457251131535, -0.0015755948843434453, -0.001442244159989059, -0.0013088933192193508, -0.0011755424784496427, -0.0010421917540952563, -0.0009088409133255482, -0.0007754901307635009, -0.0006421393482014537, -0.0005087885074317455, -0.0003754377248696983, -0.00024208694230765104, -0.00010873614519368857, 2.46146519202739e-05, 0.00015796544903423637, 0.00029131624614819884, 0.0004246670287102461, 0.0005580178694799542, 0.0006913686520420015, 0.0008247194346040487, 0.000958070217166096, 0.0010914209997281432, 0.0012247718404978514, 0.0013581225648522377, 0.0014914734056219459, 0.001624824246391654, 0.0017581749707460403, 0.0018915258115157485, 0.0020248766522854567, 0.002158227376639843, 0.0022915781009942293, 0.0024249290581792593, 0.0025582797825336456, 0.002691630506888032, 0.002824981464073062, 0.0029583321884274483]}, "gradients/model.fc.0.weight": {"_type": "histogram", "values": [1.0, 0.0, 0.0, 1.0, 0.0, 2.0, 3.0, 1.0, 0.0, 1.0, 1.0, 0.0, 3.0, 2.0, 2.0, 3.0, 4.0, 4.0, 3.0, 12.0, 11.0, 14.0, 27.0, 42.0, 50.0, 84.0, 127.0, 180.0, 304.0, 420.0, 569.0, 849.0, 1312.0, 2046.0, 3224.0, 5276.0, 9052.0, 16075.0, 32245.0, 78800.0, 375893.0, 9033841.0, 76570.0, 29173.0, 14244.0, 7776.0, 4283.0, 2616.0, 1626.0, 946.0, 595.0, 353.0, 202.0, 175.0, 99.0, 55.0, 42.0, 29.0, 24.0, 17.0, 9.0, 5.0, 3.0, 2.0], "bins": [-0.004276788793504238, -0.004173000808805227, -0.004069212824106216, -0.003965424839407206, -0.003861636621877551, -0.0037578486371785402, -0.0036540606524795294, -0.0035502726677805185, -0.003446484450250864, -0.003342696465551853, -0.0032389084808528423, -0.0031351204961538315, -0.0030313325114548206, -0.00292754452675581, -0.0028237563092261553, -0.0027199683245271444, -0.0026161803398281336, -0.0025123923551291227, -0.002408604370430112, -0.0023048161529004574, -0.0022010281682014465, -0.0020972401835024357, -0.001993452198803425, -0.0018896640976890922, -0.0017858761129900813, -0.0016820881282910705, -0.0015783000271767378, -0.001474512042477727, -0.001370724057778716, -0.0012669359566643834, -0.0011631479719653726, -0.0010593598708510399, -0.0009555721189826727, -0.0008517840760760009, -0.0007479960331693292, -0.0006442080484703183, -0.0005404200055636466, -0.0004366319626569748, -0.0003328439488541335, -0.00022905592049937695, -0.00012526789214462042, -2.1479863789863884e-05, 8.230816456489265e-05, 0.00018609619291964918, 0.0002898842212744057, 0.0003936722641810775, 0.0004974602488800883, 0.0006012482917867601, 0.0007050363346934319, 0.0008088243776001036, 0.0009126124205067754, 0.0010164004052057862, 0.001120188506320119, 0.0012239764910191298, 0.0013277644757181406, 0.0014315525768324733, 0.0015353405615314841, 0.001639128546230495, 0.0017429166473448277, 0.0018467046320438385, 0.0019504926167428493, 0.00205428060144186, 0.0021580688189715147, 0.0022618568036705256, 0.0023656447883695364]}, "gradients/model.block2.2.weight": {"_type": "histogram", "values": [1.0, 0.0, 1.0, 1.0, 0.0, 0.0, 0.0, 0.0, 0.0, 0.0, 0.0, 0.0, 0.0, 3.0, 3.0, 5.0, 6.0, 8.0, 9.0, 18.0, 19.0, 13.0, 25.0, 35.0, 42.0, 52.0, 69.0, 76.0, 108.0, 113.0, 192.0, 237.0, 312.0, 485.0, 700.0, 1043.0, 1574.0, 2555.0, 4628.0, 10782.0, 17534.0, 4083.0, 1870.0, 1059.0, 582.0, 364.0, 189.0, 130.0, 83.0, 38.0, 28.0, 17.0, 15.0, 11.0, 8.0, 7.0, 4.0, 2.0, 6.0, 0.0, 2.0, 1.0, 2.0, 2.0], "bins": [-0.02791854552924633, -0.02722322568297386, -0.026527907699346542, -0.025832587853074074, -0.025137269869446754, -0.024441950023174286, -0.023746632039546967, -0.023051312193274498, -0.02235599234700203, -0.02166067436337471, -0.02096535451710224, -0.020270036533474922, -0.019574716687202454, -0.018879398703575134, -0.018184078857302666, -0.017488760873675346, -0.016793441027402878, -0.01609812118113041, -0.01540280319750309, -0.014707484282553196, -0.014012165367603302, -0.013316845521330833, -0.01262152660638094, -0.011926207691431046, -0.011230888776481152, -0.010535569861531258, -0.009840250946581364, -0.00914493203163147, -0.008449612185359001, -0.0077542937360703945, -0.007058974355459213, -0.006363655440509319, -0.005668338388204575, -0.004973019473254681, -0.004277700558304787, -0.0035823811776936054, -0.0028870622627437115, -0.0021917433477938175, -0.00149642420001328, -0.0008011051686480641, -0.00010578613728284836, 0.0005895328940823674, 0.0012848519254475832, 0.001980171073228121, 0.0026754899881780148, 0.0033708089031279087, 0.00406612828373909, 0.004761447198688984, 0.005456766113638878, 0.006152085028588772, 0.006847403943538666, 0.007542723324149847, 0.008238041773438454, 0.008933361619710922, 0.009628680534660816, 0.01032399944961071, 0.011019318364560604, 0.011714637279510498, 0.012409956194460392, 0.013105275109410286, 0.013800594955682755, 0.014495913870632648, 0.015191232785582542, 0.015886550769209862, 0.01658187061548233]}, "gradients/model.block2.2.bias": {"_type": "histogram", "values": [1.0, 0.0, 1.0, 0.0, 0.0, 1.0, 0.0, 1.0, 0.0, 0.0, 1.0, 1.0, 1.0, 1.0, 0.0, 0.0, 2.0, 0.0, 4.0, 0.0, 1.0, 3.0, 1.0, 3.0, 4.0, 5.0, 4.0, 6.0, 7.0, 7.0, 7.0, 7.0, 9.0, 9.0, 3.0, 6.0, 7.0, 3.0, 6.0, 4.0, 4.0, 1.0, 1.0, 2.0, 0.0, 1.0, 1.0, 1.0, 0.0, 0.0, 0.0, 0.0, 0.0, 0.0, 0.0, 0.0, 0.0, 0.0, 0.0, 0.0, 0.0, 0.0, 0.0, 1.0], "bins": [-0.05988047271966934, -0.058090776205062866, -0.05630107969045639, -0.054511383175849915, -0.05272168666124344, -0.050931986421346664, -0.04914228990674019, -0.04735259339213371, -0.04556289687752724, -0.04377320036292076, -0.041983503848314285, -0.04019380733370781, -0.038404107093811035, -0.03661441057920456, -0.034824714064598083, -0.03303501754999161, -0.031245321035385132, -0.029455624520778656, -0.02766592800617218, -0.025876229628920555, -0.02408653311431408, -0.022296836599707603, -0.02050713822245598, -0.018717441707849503, -0.016927745193243027, -0.015138048678636551, -0.0133483512327075, -0.01155865378677845, -0.009768957272171974, -0.007979260757565498, -0.006189563311636448, -0.004399866331368685, -0.0026101693511009216, -0.0008204723708331585, 0.0009692246094346046, 0.0027589215897023678, 0.004548618569970131, 0.006338315550237894, 0.008128012530505657, 0.009917709976434708, 0.011707406491041183, 0.01349710300564766, 0.01528680045157671, 0.01707649789750576, 0.018866194412112236, 0.020655890926718712, 0.022445589303970337, 0.024235285818576813, 0.02602498233318329, 0.027814678847789764, 0.02960437536239624, 0.031394071877002716, 0.03318376839160919, 0.034973468631505966, 0.03676316514611244, 0.03855286166071892, 0.040342558175325394, 0.04213225468993187, 0.043921951204538345, 0.04571164771914482, 0.047501347959041595, 0.04929104447364807, 0.05108074098825455, 0.05287043750286102, 0.0546601340174675]}, "gradients/model.block2.0.weight": {"_type": "histogram", "values": [1.0, 0.0, 1.0, 1.0, 0.0, 0.0, 0.0, 0.0, 1.0, 1.0, 1.0, 1.0, 3.0, 3.0, 4.0, 4.0, 5.0, 7.0, 11.0, 11.0, 29.0, 36.0, 58.0, 66.0, 98.0, 138.0, 268.0, 373.0, 589.0, 955.0, 1665.0, 3230.0, 7180.0, 4768.0, 2230.0, 1144.0, 703.0, 376.0, 234.0, 113.0, 79.0, 55.0, 33.0, 22.0, 21.0, 11.0, 11.0, 8.0, 6.0, 1.0, 3.0, 5.0, 2.0, 3.0, 1.0, 0.0, 1.0, 0.0, 3.0, 0.0, 2.0, 0.0, 0.0, 1.0], "bins": [-0.03009285032749176, -0.02917633391916752, -0.028259819373488426, -0.027343302965164185, -0.026426788419485092, -0.02551027201116085, -0.024593757465481758, -0.023677241057157516, -0.022760726511478424, -0.021844210103154182, -0.02092769369482994, -0.02001117914915085, -0.019094662740826607, -0.018178148195147514, -0.017261631786823273, -0.01634511724114418, -0.015428600832819939, -0.014512085355818272, -0.013595569878816605, -0.012679054401814938, -0.01176253892481327, -0.010846022516489029, -0.009929507039487362, -0.009012991562485695, -0.008096476085484028, -0.007179960608482361, -0.006263445131480694, -0.0053469291888177395, -0.0044304137118160725, -0.0035138982348144054, -0.0025973825249820948, -0.001680866931565106, -0.0007643513381481171, 0.00015216425526887178, 0.0010686798486858606, 0.0019851955585181713, 0.0029017110355198383, 0.0038182265125215054, 0.00473474245518446, 0.005651257932186127, 0.006567773409187794, 0.007484288886189461, 0.008400804363191128, 0.009317319840192795, 0.010233836248517036, 0.011150351725518703, 0.01206686720252037, 0.012983382679522038, 0.013899898156523705, 0.014816413633525372, 0.01573292911052704, 0.01664944551885128, 0.017565960064530373, 0.018482476472854614, 0.019398991018533707, 0.02031550742685795, 0.02123202383518219, 0.022148538380861282, 0.023065054789185524, 0.023981569334864616, 0.024898085743188858, 0.02581460028886795, 0.026731116697192192, 0.027647631242871284, 0.028564147651195526]}, "gradients/model.block2.0.bias": {"_type": "histogram", "values": [1.0, 0.0, 0.0, 0.0, 0.0, 0.0, 0.0, 1.0, 0.0, 0.0, 0.0, 0.0, 2.0, 1.0, 0.0, 1.0, 0.0, 2.0, 0.0, 0.0, 2.0, 0.0, 2.0, 2.0, 3.0, 2.0, 3.0, 2.0, 5.0, 3.0, 5.0, 3.0, 5.0, 9.0, 2.0, 7.0, 4.0, 8.0, 8.0, 1.0, 2.0, 5.0, 3.0, 5.0, 4.0, 4.0, 6.0, 4.0, 3.0, 0.0, 2.0, 0.0, 0.0, 0.0, 0.0, 0.0, 0.0, 0.0, 0.0, 0.0, 1.0, 3.0, 0.0, 2.0], "bins": [-0.03435571864247322, -0.03344173729419708, -0.032527752220630646, -0.03161377087235451, -0.03069978952407837, -0.02978580631315708, -0.028871824964880943, -0.027957841753959656, -0.027043860405683517, -0.02612987719476223, -0.025215893983840942, -0.024301912635564804, -0.023387929424643517, -0.022473948076367378, -0.02155996486544609, -0.020645983517169952, -0.019732000306248665, -0.018818017095327377, -0.01790403574705124, -0.01699005253612995, -0.016076071187853813, -0.015162087976932526, -0.014248105697333813, -0.0133341234177351, -0.012420141138136387, -0.011506158858537674, -0.010592176578938961, -0.009678194299340248, -0.00876421108841896, -0.007850228808820248, -0.006936246529221535, -0.006022264249622822, -0.005108281970024109, -0.004194299690425396, -0.0032803171779960394, -0.002366334665566683, -0.00145235238596797, -0.0005383699899539351, 0.0003756124060600996, 0.0012895948020741343, 0.002203577198088169, 0.003117559477686882, 0.004031541757285595, 0.004945524502545595, 0.005859506782144308, 0.006773489061743021, 0.007687471807003021, 0.008601454086601734, 0.009515436366200447, 0.01042941864579916, 0.011343400925397873, 0.012257383204996586, 0.013171365484595299, 0.014085348695516586, 0.0149993309751153, 0.015913313254714012, 0.0168272964656353, 0.017741277813911438, 0.018655261024832726, 0.019569242373108864, 0.02048322558403015, 0.02139720693230629, 0.022311190143227577, 0.023225171491503716, 0.024139154702425003]}, "gradients/model.block1.2.weight": {"_type": "histogram", "values": [2.0, 1.0, 0.0, 2.0, 3.0, 2.0, 2.0, 3.0, 10.0, 10.0, 7.0, 14.0, 30.0, 23.0, 14.0, 35.0, 35.0, 43.0, 58.0, 60.0, 82.0, 105.0, 155.0, 188.0, 277.0, 352.0, 473.0, 715.0, 952.0, 1347.0, 1842.0, 1898.0, 1110.0, 776.0, 452.0, 302.0, 200.0, 142.0, 121.0, 97.0, 54.0, 42.0, 45.0, 46.0, 31.0, 22.0, 15.0, 18.0, 12.0, 17.0, 10.0, 4.0, 4.0, 7.0, 3.0, 6.0, 2.0, 0.0, 1.0, 5.0, 0.0, 2.0, 0.0, 2.0], "bins": [-0.04537562280893326, -0.043921638280153275, -0.04246765002608299, -0.04101366549730301, -0.03955967724323273, -0.038105692714452744, -0.03665170818567276, -0.03519771993160248, -0.033743735402822495, -0.03228975087404251, -0.03083576261997223, -0.029381778091192245, -0.027927791699767113, -0.02647380530834198, -0.025019820779561996, -0.023565834388136864, -0.02211184799671173, -0.020657861605286598, -0.019203875213861465, -0.017749890685081482, -0.01629590429365635, -0.014841917902231216, -0.013387932442128658, -0.0119339469820261, -0.010479960590600967, -0.009025974199175835, -0.0075719887390732765, -0.006118002813309431, -0.004664016887545586, -0.00321003096178174, -0.0017560450360178947, -0.0003020591102540493, 0.0011519268155097961, 0.0026059127412736416, 0.004059898667037487, 0.0055138845928013325, 0.006967870518565178, 0.00842185690999031, 0.009875842370092869, 0.011329827830195427, 0.01278381422162056, 0.014237800613045692, 0.015691787004470825, 0.01714577153325081, 0.01859975792467594, 0.020053744316101074, 0.021507728844881058, 0.02296171523630619, 0.024415701627731323, 0.025869688019156456, 0.02732367441058159, 0.028777658939361572, 0.030231645330786705, 0.03168563172221184, 0.03313961625099182, 0.0345936045050621, 0.03604758903384209, 0.03750157356262207, 0.03895556181669235, 0.040409546345472336, 0.04186353087425232, 0.0433175191283226, 0.044771503657102585, 0.04622549191117287, 0.04767947643995285]}, "gradients/model.block1.2.bias": {"_type": "histogram", "values": [1.0, 0.0, 1.0, 1.0, 1.0, 0.0, 0.0, 0.0, 0.0, 1.0, 0.0, 1.0, 1.0, 0.0, 2.0, 2.0, 0.0, 2.0, 2.0, 1.0, 1.0, 1.0, 1.0, 1.0, 2.0, 3.0, 2.0, 5.0, 2.0, 2.0, 0.0, 5.0, 0.0, 1.0, 1.0, 1.0, 4.0, 1.0, 0.0, 0.0, 1.0, 2.0, 1.0, 1.0, 1.0, 0.0, 2.0, 0.0, 0.0, 2.0, 1.0, 1.0, 1.0, 0.0, 0.0, 0.0, 0.0, 0.0, 0.0, 0.0, 0.0, 0.0, 1.0, 1.0], "bins": [-0.030346065759658813, -0.02945394068956375, -0.02856181561946869, -0.027669692412018776, -0.026777567341923714, -0.02588544227182865, -0.02499331906437874, -0.024101193994283676, -0.023209068924188614, -0.02231694385409355, -0.02142481878399849, -0.020532695576548576, -0.019640570506453514, -0.018748445436358452, -0.01785632222890854, -0.016964197158813477, -0.016072072088718414, -0.015179947018623352, -0.014287822879850864, -0.013395698741078377, -0.012503573670983315, -0.011611448600888252, -0.010719324462115765, -0.009827200323343277, -0.008935075253248215, -0.008042950183153152, -0.007150826044380665, -0.00625870143994689, -0.005366576835513115, -0.00447445223107934, -0.003582327626645565, -0.00269020302221179, -0.001798076555132866, -0.000905951950699091, -1.382734626531601e-05, 0.0008782972581684589, 0.0017704218626022339, 0.002662546467036009, 0.0035546710714697838, 0.004446795675903559, 0.005338920280337334, 0.006231044884771109, 0.007123169489204884, 0.008015293627977371, 0.008907418698072433, 0.009799543768167496, 0.010691667906939983, 0.011583792045712471, 0.012475917115807533, 0.013368042185902596, 0.014260166324675083, 0.01515229046344757, 0.016044415533542633, 0.016936540603637695, 0.017828665673732758, 0.01872078888118267, 0.019612913951277733, 0.020505039021372795, 0.021397162228822708, 0.02228928729891777, 0.023181412369012833, 0.024073537439107895, 0.024965662509202957, 0.02585778571665287, 0.026749910786747932]}, "gradients/model.block1.0.weight": {"_type": "histogram", "values": [1.0, 4.0, 2.0, 6.0, 7.0, 4.0, 1.0, 11.0, 7.0, 7.0, 3.0, 2.0, 6.0, 9.0, 9.0, 17.0, 20.0, 24.0, 33.0, 36.0, 52.0, 54.0, 82.0, 113.0, 93.0, 158.0, 185.0, 212.0, 282.0, 402.0, 468.0, 586.0, 763.0, 828.0, 819.0, 840.0, 809.0, 626.0, 536.0, 457.0, 387.0, 274.0, 247.0, 198.0, 144.0, 136.0, 107.0, 58.0, 58.0, 34.0, 22.0, 20.0, 23.0, 7.0, 12.0, 4.0, 13.0, 9.0, 14.0, 9.0, 5.0, 2.0, 4.0, 7.0], "bins": [-0.04149702563881874, -0.04030972346663475, -0.03912242129445076, -0.03793511912226677, -0.03674782067537308, -0.03556051850318909, -0.034373216331005096, -0.033185914158821106, -0.031998611986637115, -0.030811309814453125, -0.029624007642269135, -0.028436707332730293, -0.027249405160546303, -0.026062102988362312, -0.02487480267882347, -0.02368750050663948, -0.02250019833445549, -0.0213128961622715, -0.02012559399008751, -0.018938293680548668, -0.017750991508364677, -0.016563689336180687, -0.015376388095319271, -0.014189086854457855, -0.013001784682273865, -0.011814482510089874, -0.010627181269228458, -0.009439880028367043, -0.008252577856183052, -0.007065276149660349, -0.005877974443137646, -0.0046906727366149426, -0.003503367304801941, -0.0023160655982792377, -0.0011287638917565346, 5.8537814766168594e-05, 0.0012458395212888718, 0.002433141227811575, 0.003620442934334278, 0.004807744640856981, 0.0059950463473796844, 0.007182348053902388, 0.00836964976042509, 0.009556951001286507, 0.010744253173470497, 0.011931555345654488, 0.013118856586515903, 0.01430615782737732, 0.01549345999956131, 0.0166807621717453, 0.01786806434392929, 0.019055364653468132, 0.020242666825652122, 0.021429968997836113, 0.022617269307374954, 0.023804571479558945, 0.024991873651742935, 0.026179175823926926, 0.027366477996110916, 0.028553778305649757, 0.029741080477833748, 0.03092838265001774, 0.03211568295955658, 0.03330298513174057, 0.03449028730392456]}, "gradients/model.block1.0.bias": {"_type": "histogram", "values": [1.0, 0.0, 0.0, 1.0, 0.0, 0.0, 0.0, 1.0, 0.0, 0.0, 1.0, 2.0, 1.0, 1.0, 2.0, 1.0, 3.0, 2.0, 3.0, 1.0, 4.0, 1.0, 3.0, 2.0, 2.0, 1.0, 1.0, 1.0, 1.0, 1.0, 2.0, 3.0, 0.0, 0.0, 3.0, 1.0, 0.0, 2.0, 1.0, 0.0, 1.0, 0.0, 2.0, 2.0, 1.0, 0.0, 2.0, 1.0, 0.0, 0.0, 1.0, 1.0, 0.0, 0.0, 0.0, 0.0, 0.0, 2.0, 1.0, 0.0, 0.0, 0.0, 0.0, 1.0], "bins": [-0.01709432527422905, -0.016515664756298065, -0.01593700237572193, -0.015358341857790947, -0.014779680408537388, -0.014201019890606403, -0.013622358441352844, -0.013043696992099285, -0.012465035542845726, -0.011886375024914742, -0.011307713575661182, -0.010729052126407623, -0.010150391608476639, -0.00957173015922308, -0.00899306870996952, -0.008414408192038536, -0.007835746742784977, -0.007257085759192705, -0.006678424309939146, -0.006099763326346874, -0.005521101877093315, -0.004942440893501043, -0.0043637799099087715, -0.003785118693485856, -0.0032064574770629406, -0.002627796260640025, -0.0020491350442171097, -0.0014704740606248379, -0.0008918128442019224, -0.00031315168598666787, 0.0002655094722285867, 0.0008441706304438412, 0.0014228317886590958, 0.0020014930050820112, 0.0025801542215049267, 0.0031588152050971985, 0.003737476421520114, 0.004316137637943029, 0.004894798621535301, 0.00547346007078886, 0.006052121054381132, 0.006630782037973404, 0.007209443487226963, 0.007788104470819235, 0.008366765454411507, 0.008945426903665066, 0.009524088352918625, 0.01010274887084961, 0.010681410320103168, 0.011260071769356728, 0.011838732287287712, 0.012417393736541271, 0.01299605518579483, 0.013574715703725815, 0.014153377152979374, 0.014732038602232933, 0.015310699120163918, 0.01588936150074005, 0.016468022018671036, 0.01704668253660202, 0.017625344917178154, 0.01820400543510914, 0.018782665953040123, 0.019361328333616257, 0.01993998885154724]}, "contact_state/acc/train": 1.0, "legs_avg/acc/train": 1.0, "RF/acc/train": 1.0, "LF/acc/train": 1.0, "RH/acc/train": 1.0, "LH/acc/train": 1.0, "loss/train": 0.04761119186878204, "epoch": 0, "trainer/global_step": 17799, "_runtime": 151.51602125167847, "_step": 7}